-2.096996605396270752e-01
8.372253924608230591e-02
-1.849291287362575531e-02
9.957605600357055664e-02
6.708264816552400589e-03
-1.280950009822845459e-01
7.754290848970413208e-02
-1.307213865220546722e-02
1.257453411817550659e-01
-2.174993157386779785e-01
7.514675706624984741e-02
1.391542702913284302e-01
5.045547708868980408e-02
-1.216187551617622375e-01
8.375515788793563843e-02
6.381980329751968384e-02
2.552117705345153809e-01
1.826415061950683594e-01
-3.452476812526583672e-03
-5.929967015981674194e-02
2.965149283409118652e-01
4.488369524478912354e-01
-1.396553814411163330e-01
-2.402835339307785034e-01
2.344372123479843140e-01
-5.733859725296497345e-03
-2.379606813192367554e-01
3.566563725471496582e-01
-1.651179492473602295e-01
-6.668800115585327148e-02
8.844313770532608032e-02
3.042860627174377441e-01
2.039371281862258911e-01
3.911947607994079590e-01
1.775144487619400024e-01
-6.511215865612030029e-02
-1.996576972305774689e-02
1.591809689998626709e-01
4.339056834578514099e-02
-7.018021494150161743e-02
1.338997390121221542e-02
-2.186779081821441650e-01
2.349691987037658691e-01
5.851639807224273682e-02
4.997693467885255814e-03
3.447702527046203613e-01
1.224541589617729187e-01
-2.798435091972351074e-01
