1.938048191368579865e-02
-1.119740009307861328e-01
-2.475542714819312096e-03
1.825670897960662842e-02
-2.038030624389648438e-01
-8.774330466985702515e-02
9.845931082963943481e-03
9.289295971393585205e-02
2.076727300882339478e-01
1.650130599737167358e-01
-1.629448384046554565e-01
2.024048566818237305e-01
1.768521815538406372e-01
-4.923531040549278259e-02
8.367574214935302734e-02
-4.701412469148635864e-02
2.377080768346786499e-01
4.338575527071952820e-02
2.449157983064651489e-01
-7.749223709106445312e-02
-1.458057165145874023e-01
1.135545969009399414e-01
2.122847363352775574e-02
8.585477620363235474e-02
5.350167304277420044e-02
-2.189486660063266754e-02
2.231694608926773071e-01
-3.480982407927513123e-02
-1.338522136211395264e-01
2.709344923496246338e-01
1.902231425046920776e-01
2.897500395774841309e-01
-2.349828928709030151e-02
1.291218250989913940e-01
1.446772664785385132e-01
-2.209630012512207031e-01
-6.960389763116836548e-02
3.076070845127105713e-01
-2.506146393716335297e-02
-3.039256110787391663e-02
1.340729463845491409e-02
-8.266437798738479614e-02
-8.974421024322509766e-02
-2.415531873703002930e-02
-1.679212749004364014e-01
2.677939236164093018e-01
1.333882510662078857e-01
1.325199753046035767e-01
